{"gradients/net.fc.bias": {"_type": "histogram", "values": [2.0, 0.0, 0.0, 0.0, 1.0, 0.0, 0.0, 0.0, 0.0, 0.0, 0.0, 0.0, 0.0, 0.0, 0.0, 0.0, 0.0, 0.0, 0.0, 0.0, 0.0, 0.0, 0.0, 1.0, 0.0, 0.0, 0.0, 0.0, 0.0, 0.0, 0.0, 1.0, 0.0, 0.0, 0.0, 0.0, 0.0, 1.0, 1.0, 0.0, 0.0, 0.0, 0.0, 0.0, 0.0, 0.0, 1.0, 2.0, 0.0, 0.0, 0.0, 0.0, 0.0, 0.0, 0.0, 0.0, 0.0, 1.0, 1.0, 0.0, 2.0, 0.0, 0.0, 1.0], "bins": [-0.07763645052909851, -0.07562066614627838, -0.07360487431287766, -0.07158908993005753, -0.0695733055472374, -0.06755751371383667, -0.06554172933101654, -0.06352594494819641, -0.06151015684008598, -0.059494368731975555, -0.057478584349155426, -0.055462796241045, -0.05344700813293457, -0.05143122375011444, -0.04941543564200401, -0.047399647533893585, -0.045383863151073456, -0.04336807504296303, -0.0413522906601429, -0.03933650255203247, -0.03732071816921234, -0.03530493006110191, -0.033289141952991486, -0.031273357570171356, -0.02925756946206093, -0.02724178321659565, -0.02522599697113037, -0.023210208863019943, -0.021194422617554665, -0.019178636372089386, -0.017162848263978958, -0.01514706201851368, -0.013131268322467804, -0.011115482077002525, -0.009099694900214672, -0.007083908189088106, -0.00506812147796154, -0.0030523352324962616, -0.0010365480557084084, 0.0009792391210794449, 0.0029950253665447235, 0.0050108120776712894, 0.007026598788797855, 0.009042385965585709, 0.011058172211050987, 0.013073958456516266, 0.015089745633304119, 0.017105532810091972, 0.01912131905555725, 0.02113710530102253, 0.023152891546487808, 0.025168679654598236, 0.027184465900063515, 0.029200252145528793, 0.03121604025363922, 0.03323182463645935, 0.03524761274456978, 0.037263400852680206, 0.039279185235500336, 0.041294973343610764, 0.04331076145172119, 0.04532654583454132, 0.04734233394265175, 0.049358122050762177, 0.051373906433582306]}, "gradients/net.fc.weight": {"_type": "histogram", "values": [1.0, 0.0, 0.0, 0.0, 0.0, 1.0, 0.0, 0.0, 0.0, 0.0, 0.0, 0.0, 0.0, 0.0, 0.0, 0.0, 0.0, 0.0, 0.0, 1.0, 1.0, 4.0, 0.0, 5.0, 1.0, 4.0, 8.0, 6.0, 7.0, 8.0, 22.0, 27.0, 24.0, 44.0, 44.0, 69.0, 86.0, 105.0, 142.0, 197.0, 233.0, 313.0, 422.0, 536.0, 747.0, 1039.0, 1543.0, 2290.0, 4756.0, 4632.0, 5646.0, 3854.0, 2291.0, 1046.0, 389.0, 118.0, 41.0, 9.0, 3.0, 2.0, 1.0, 0.0, 0.0, 2.0], "bins": [-0.34894275665283203, -0.34182167053222656, -0.3347006142139435, -0.327579528093338, -0.32045847177505493, -0.31333738565444946, -0.306216299533844, -0.2990952432155609, -0.29197415709495544, -0.28485307097435, -0.2777320146560669, -0.2706109285354614, -0.26348987221717834, -0.2563687860965729, -0.2492477148771286, -0.24212664365768433, -0.23500555753707886, -0.22788448631763458, -0.2207634150981903, -0.21364232897758484, -0.20652125775814056, -0.1994001865386963, -0.19227911531925201, -0.18515804409980774, -0.17803697288036346, -0.1709159016609192, -0.16379483044147491, -0.15667374432086945, -0.14955267310142517, -0.1424316018819809, -0.13531053066253662, -0.12818944454193115, -0.12106837332248688, -0.1139473021030426, -0.10682622343301773, -0.09970515221357346, -0.09258407354354858, -0.08546300232410431, -0.07834193110466003, -0.07122085243463516, -0.06409977376461029, -0.05697869881987572, -0.049857623875141144, -0.04273655265569687, -0.035615473985672, -0.028494402766227722, -0.02137332782149315, -0.014252252876758575, -0.0071311816573143005, -1.010717824101448e-05, 0.007110967300832272, 0.01423204131424427, 0.021353116258978844, 0.028474189341068268, 0.03559526428580284, 0.042716339230537415, 0.04983741417527199, 0.05695848912000656, 0.06407956033945084, 0.07120063900947571, 0.07832171022891998, 0.08544278144836426, 0.09256386011838913, 0.099684938788414, 0.10680601000785828]}, "train_loss": 0.9484225511550903, "val_loss": 1.51292884349823, "accuracy": 0.5421836228287841, "recall_score": 0.5419836392297166, "precision_score": 0.5321518217151258, "f1_score": 0.5289444781587296, "confusion_matrix": {"_type": "table-file", "path": "media/table/confusion_matrix_17_2163c2b6db1f589d7e34.table.json", "sha256": "2163c2b6db1f589d7e344ac1192594d4ec7885d7e941bfeca49d15c6f82ebcbe", "size": 850, "artifact_path": "wandb-client-artifact://arq9cr14202uhetn47sxn5jomy7k1ilvuz0z73fh6ve9as9zeh2x1nlqfe0sx9ph4gdbjc01n13gmgfc43omrx9d2fqpbyr0h6l1tgep2k1wngu3oaul1df8rgypaubj:latest/confusion_matrix.table.json", "_latest_artifact_path": "wandb-client-artifact://arq9cr14202uhetn47sxn5jomy7k1ilvuz0z73fh6ve9as9zeh2x1nlqfe0sx9ph4gdbjc01n13gmgfc43omrx9d2fqpbyr0h6l1tgep2k1wngu3oaul1df8rgypaubj:latest/confusion_matrix.table.json", "ncols": 15, "nrows": 15}, "_runtime": 6927, "_timestamp": 1640823454, "_step": 18}