{"gradients/net.fc.bias": {"_type": "histogram", "values": [2.0, 0.0, 0.0, 1.0, 0.0, 0.0, 0.0, 0.0, 0.0, 0.0, 0.0, 0.0, 0.0, 0.0, 0.0, 0.0, 0.0, 0.0, 0.0, 0.0, 0.0, 0.0, 1.0, 0.0, 0.0, 0.0, 0.0, 0.0, 0.0, 0.0, 0.0, 0.0, 0.0, 1.0, 0.0, 0.0, 0.0, 1.0, 0.0, 0.0, 1.0, 1.0, 0.0, 0.0, 0.0, 0.0, 1.0, 0.0, 0.0, 1.0, 0.0, 0.0, 1.0, 1.0, 0.0, 1.0, 0.0, 0.0, 0.0, 0.0, 0.0, 1.0, 0.0, 1.0], "bins": [-0.0894218236207962, -0.08703863620758057, -0.08465544879436493, -0.08227226138114929, -0.07988907396793365, -0.07750588655471802, -0.07512269914150238, -0.07273951172828674, -0.0703563243150711, -0.06797313690185547, -0.06558994948863983, -0.0632067620754242, -0.06082357466220856, -0.05844038724899292, -0.056057196110486984, -0.05367400869727135, -0.05129081755876541, -0.048907630145549774, -0.04652444273233414, -0.0441412553191185, -0.04175806790590286, -0.039374880492687225, -0.03699168935418129, -0.03460850194096565, -0.032225314527750015, -0.029842127114534378, -0.02745893970131874, -0.025075750425457954, -0.022692563012242317, -0.02030937559902668, -0.017926186323165894, -0.015542998909950256, -0.013159818947315216, -0.010776631534099579, -0.008393443189561367, -0.0060102553106844425, -0.003627067431807518, -0.0012438800185918808, 0.001139308325946331, 0.003522496670484543, 0.00590568408370018, 0.008288871496915817, 0.010672059841454029, 0.013055248185992241, 0.015438435599207878, 0.017821623012423515, 0.020204812288284302, 0.02258799970149994, 0.024971187114715576, 0.027354374527931213, 0.02973756194114685, 0.03212074935436249, 0.034503936767578125, 0.03688712418079376, 0.0392703153192997, 0.041653502732515335, 0.04403669014573097, 0.04641987755894661, 0.04880306497216225, 0.051186252385377884, 0.05356944352388382, 0.05595263093709946, 0.058335818350315094, 0.06071900576353073, 0.06310219317674637]}, "gradients/net.fc.weight": {"_type": "histogram", "values": [1.0, 0.0, 0.0, 0.0, 0.0, 0.0, 0.0, 0.0, 0.0, 0.0, 0.0, 0.0, 0.0, 0.0, 0.0, 1.0, 1.0, 0.0, 1.0, 2.0, 2.0, 3.0, 1.0, 2.0, 5.0, 10.0, 9.0, 12.0, 17.0, 29.0, 45.0, 59.0, 92.0, 144.0, 186.0, 270.0, 369.0, 464.0, 637.0, 809.0, 935.0, 1086.0, 1317.0, 1543.0, 1657.0, 6769.0, 5806.0, 4503.0, 1966.0, 985.0, 473.0, 244.0, 131.0, 62.0, 40.0, 15.0, 7.0, 3.0, 2.0, 2.0, 1.0, 1.0, 0.0, 1.0], "bins": [-0.3263978064060211, -0.3191477060317993, -0.3118975758552551, -0.3046474754810333, -0.2973973751068115, -0.29014724493026733, -0.28289714455604553, -0.27564701437950134, -0.26839691400527954, -0.26114681363105774, -0.25389668345451355, -0.24664658308029175, -0.23939646780490875, -0.23214635252952576, -0.22489625215530396, -0.21764613687992096, -0.21039602160453796, -0.20314590632915497, -0.19589579105377197, -0.18864569067955017, -0.18139557540416718, -0.17414546012878418, -0.16689535975456238, -0.15964524447917938, -0.1523951292037964, -0.1451450139284134, -0.1378948986530304, -0.1306447982788086, -0.1233946830034256, -0.1161445677280426, -0.1088944599032402, -0.1016443520784378, -0.09439423680305481, -0.08714412152767181, -0.07989401370286942, -0.07264390587806702, -0.06539379060268402, -0.058143679052591324, -0.05089356750249863, -0.04364345595240593, -0.03639334440231323, -0.029143232852220535, -0.021893121302127838, -0.014643009752035141, -0.007392898201942444, -0.0001427866518497467, 0.0071073248982429504, 0.014357436448335648, 0.021607547998428345, 0.028857659548521042, 0.03610777109861374, 0.043357882648706436, 0.05060799419879913, 0.05785810574889183, 0.06510821729898453, 0.07235832512378693, 0.07960844039916992, 0.08685855567455292, 0.09410866349935532, 0.10135877132415771, 0.10860888659954071, 0.1158590018749237, 0.1231091096997261, 0.1303592175245285, 0.1376093327999115]}, "train_loss": 1.2311718463897705, "val_loss": 1.4133683443069458, "accuracy": 0.5514888337468983, "recall_score": 0.551927662535831, "precision_score": 0.5442832197751316, "f1_score": 0.5365119363118996, "confusion_matrix": {"_type": "table-file", "path": "media/table/confusion_matrix_25_dd80f0e7c1850358bdfb.table.json", "sha256": "dd80f0e7c1850358bdfba5fdad02e78a2e0503e4f0ce8330a3d738da2e39789a", "size": 853, "artifact_path": "wandb-client-artifact://zyfwjqvf1xiea0plryhkzm3c7opz4cxnvyflcznsir37asdeqocmig8dz6dga3mclyi0g8f19qnnrtc7w4vf5vgyw0pzs3fxe0irdukkzwktoui1ishepz2z4tolvtr7:latest/confusion_matrix.table.json", "_latest_artifact_path": "wandb-client-artifact://zyfwjqvf1xiea0plryhkzm3c7opz4cxnvyflcznsir37asdeqocmig8dz6dga3mclyi0g8f19qnnrtc7w4vf5vgyw0pzs3fxe0irdukkzwktoui1ishepz2z4tolvtr7:latest/confusion_matrix.table.json", "ncols": 15, "nrows": 15}, "_runtime": 9952, "_timestamp": 1640816436, "_step": 26}